|--- R <= 10.00
|   |--- G <= 8.00
|   |   |--- class: BLACK
|   |--- G >  8.00
|   |   |--- B <= 22.00
|   |   |   |--- class: GREEN
|   |   |--- B >  22.00
|   |   |   |--- class: BLUE
|--- R >  10.00
|   |--- G <= 26.50
|   |   |--- R <= 30.00
|   |   |   |--- class: BROWN
|   |   |--- R >  30.00
|   |   |   |--- class: RED
|   |--- G >  26.50
|   |   |--- G <= 52.00
|   |   |   |--- class: YELLOW
|   |   |--- G >  52.00
|   |   |   |--- class: WHITE